svm_type c_svc
kernel_type linear
nr_class 2
total_sv 23
rho 46.1302
label 1 0
nr_sv 11 12
SV
1 1:22 2:51 3:20 4:6 5:4 6:10 
1 1:40 2:49 3:35 4:1 5:4 6:30 
0.7769334071518571 1:32 2:24 3:27 4:1 5:7 6:19 
1 1:18 2:49 3:14 4:10 5:2 6:2 
1 1:22 2:9 3:20 4:6 5:4 6:10 
1 1:37 2:50 3:14 4:5 5:7 6:2 
1 1:34 2:17 3:14 4:6 5:6 6:2 
1 1:20 2:13 3:17 4:5 5:6 6:6 
1 1:32 2:50 3:26 4:2 5:6 6:18 
0.440378750056003 1:33 2:1 3:14 4:5 5:7 6:2 
1 1:38 2:49 3:24 4:3 5:6 6:15 
-1 1:38 2:13 3:22 4:5 5:4 6:13 
-1 1:38 2:37 3:19 4:5 5:5 6:9 
-1 1:34 2:52 3:16 4:4 5:7 6:5 
-1 1:23 2:42 3:16 4:4 5:7 6:5 
-0.3953838287720987 1:39 2:50 3:34 4:2 5:3 6:29 
-1 1:27 2:52 3:13 4:6 5:6 6:1 
-1 1:13 2:34 3:13 4:5 5:7 6:1 
-1 1:32 2:1 3:31 4:2 5:4 6:25 
-1 1:19 2:37 3:19 4:8 5:2 6:9 
-1 1:39 2:27 3:25 4:3 5:5 6:17 
-0.2373380079629093 1:32 2:51 3:22 4:3 5:6 6:13 
-0.5845903204728491 1:28 2:50 3:28 4:3 5:4 6:21 
